6.178257733304309
-1.058421752627382
0.5366329381964758
0.13393262610324214
-0.0049772331863638134
0.03355962713128526
74.94906181420875
-1.220519119847723
-9.448711066622748
0.02978467849374461
-0.1432658865581404
-73.07863755764362
0.6664640828863289
-0.09376505998861766
0.29040324612465357
0.29225123192951297
-0.4119273569937453
0.02900411196320871
0.09716715033255975
-72.17962595092511
0.37995843754263153
-0.022186109482104206
0.013766532055387835
0.5383848336008432
-3.937143387949152
-6.032317629619922
1.3748189863495792
-0.09134639198951647
1.3588872859696954
1.4211575369715246
3.846798331346433
0.2655930306387833
-2.2443752824807186
8.334001122856252
-0.40151324822337614
0.6949925534038418
-1.2004958571103272
0.45337045815120686
4.825806951063657
-0.18316426636647348
-1.746294073451353
-2.4125648712721213
0.2955501329060294
-0.2674062404664992
-7.4873569878604185
-0.04214379642140532
0.2286695255342942
-0.056656326124956184
-0.029498305815414076
-0.35685052792908123
0.4308212904368811
-0.4093863173869004
0.49991783909774756
-0.15284812172244888
0.0002049849881367215
1.1043363161128963
-0.3703965015239094
109.31435461966923
-5.364484828800452
-0.3175012706199345
0.5596184829018037
1.8703845100171388
-3.9308089889656403
-3.6409054234801546
4.053825975967011
-7.542707960676247
-1.592828624517103
5.891159963131009
-3.5545074129011445
-0.2313463701549681
-6.043413551278496
0.07412646998789525
-12.023622227256123
44.1125383753885
0.09870181398494546
-15.562455209973225
0.5043335306864206
-0.5216163114044496
-7.451543519201898
27.781334540317896
1.520558428440871
-7.092804817563599
0.3509796988054858
3.7306840309606697
-0.11539054058668526
-6.518319876961078
-0.9390598156954671
0.5464326378442346
-0.23358978727176935
0.46706267000489504
4.52380168972584
2.325690714279171
-1.9430662674972963
-1.1052834270163734
-1.1131784640298688
-1.4246915152290118
-1.6771427913038297
-4.050412472517187
11.635842548319939
-1.5396856280560212
-0.8332016220663772
-2.0405200583891956
-5.31646223779782
1.3503072851193516
-1.2107921027619135
-0.5325686175751958
0.3320458675034608
-0.940187515630952
-2.267004401500686
-4.164190930777732
0.6010774182062992
11.503554828028024
-2.1409607152328656
1.1222250014385104
4.2396097867700515
-1.8189655435497594
3.0969268089938793
-0.24716943930872637
-1.0877621333874814
-0.26451042242857825
-2.018287200725981
0.5876396393911377
0.9027476765250979
-0.2562715902890246
-0.1500538989089115
0.48901588594958556
-0.6125664135438567
2.0138058563806425
-6.533121606872942
-3.7236007927941617
-6.098998841900321
-2.043842648579762
-0.10886237576246521
0.6038569549086298
-3.9759115338011277
-1.7773387023717306
1.9696143112643203
0.04684409525737622
0.8982638229336547
0.4634498954643022
-10.286565941134144
-0.8330783511377599
0.5141399821386713
-1.3417297192313802
-0.4353740149544993
3.8284437888719203
-1.023683467419796
-0.7916200686153284
-8.733253815520884
-4.452290529577658
-1.7878273929031678
0.08507529334374997
-9.482769410208892
-1.3849794704337763
0.6361589435179706
0.6253670211329506
-0.49092271597326065
-0.015482294047063031
-1.1893417458206996
0.9837772625706586
-0.6698459404328075
0.35604954966816793
-1.0324720371296463
-1.206342882978382
-0.9761950636664906
-0.3983305725002206
2.4797786481857447
-0.07947754666201744
-0.35139533531483474
4.036402615339888
0.09165449576569185
-1.3123354829307734
5.490390922267947
-2.0230250180704057
0.16629662375577056
-6.542129365829953
4.037001470382543
1.7266102652627036
-4.2392149711375895
0.5844133911065885
3.850172556785677
-6.035226200125796
0.04712203445698544
-3.585771754093364
1.1573416350408021
-0.18967390899861966
-2.164956011010125
1.4928606079430713
-43.23175382621974
5.6520002327965955
-1.2402998630612825
-1.2496653212929552
0.6659025144851431
-11.57865426808497
-4.104765594638976
-9.137582101223646
-0.9930550020489898
1.1472847771065229
0.7051456001928933
-0.30215465350853093
0.2872372582020022
-0.153740724737459
-2.28335055824957
0.4442400886641666
-0.17550690492826915
-0.7655070516585719
-1.4379010731250197
-2.376874158914464
-4.127247966043201
0.04388546491049925
-0.2578621003653916
3.007994320671578
-1.7731686074023016
-0.852676597172562
0.17320441096883032
-0.9995829743944171
-0.4411955164407146
0.034932209968693985
2.0238880115049827
-1.6080888795850297
4.870312391486397
-5.791956791882002
0.5683622423927264
-1.862660352772562
-4.698489436554332
1.3701943876039262
1.1846197724635612
0.49578710710290924
4.221305659669435
3.3248725799232677
-1.6929477207703878
0.13924176265716492
-1.162520851025334
-2.116950626715412
-0.955108255631334
-1.9654966378596341
-1.5350325188384353
-0.2290614011121421
0.5040909259561418
0.6014969294250664
-0.26036548679210636
-0.054353048508436724
-0.06183568492226809
-0.009218900022532943
0.0026347371244349175
-0.0032233917863207346
